-0.2996258,0.3597753,0.0913049,0.3177565,0.4321389,0.3579534,0.2856059,0.4621298,0.1999471,0.3062382,-0.009628319,-0.3551394,-0.1578675,0.3969682,0.4204875,-0.3414679,0.7125452,0.3566986,-0.3406503,-0.2038615,0.05990382,-0.6095017,-0.3571691,0.01783341,0.4078654,-0.6250666,0.3478706,-0.294261,-0.4660978,-0.309111,0.2581905,-0.3215189,0.446375,0.4245976,-0.3522768,0.01426472,-0.3102323,-0.001541032,-0.326571,0.4677915,0.2842945,0.1777401,0.2530031,0.3567462,0.3045523,-0.0898395,0.02818636,0.448435,0.01858933,-0.04970218,-0.2507346,-0.4079008,0.3727629,0.2568492,0.2800724,-0.3243893,0.4770345,0.1173706,0.272456,0.3813553,-0.04479625,0.4317386,-0.3827204,-0.414508,-0.3565722,-0.4739679,0.4550181,0.68154,-0.342735,-0.4943177,0.2518761,-0.4839946,-0.3535627,0.1544542,-0.5692813,-0.2657811,-0.5039191,0.4435107,-0.2813377,0.1780805,0.2726718,-0.01063745,0.3166899,-0.552443,0.2150779,-0.4196323,-0.4195732,0.04802223,0.4804568,-0.3912793,0.363393,-0.2195924,0.4062567,0.2881051,-0.351813,-0.9268177,0.4230324,-0.489152,0.2565305,-0.3270483,-0.1475381,-0.3346735,-0.2800313,0.2395311,-0.1641016,0.3853355,-0.09885265,0.1528763,-0.421543,0.3496684,0.4379441,-0.3998234,0.5410279,-0.4235239,-0.2444918,0.4364614,0.3258661,-0.5470867,0.3325093,0.4884516,0.279297,-0.4872128,0.3483365,0.3262386,-0.4988792,-0.1359253,-0.1303693,0.4394511,-0.3867375,-0.404891,0.2582887,0.09920896,-0.3760291,0.3595105,-0.2657779,0.402701,-0.1436774,0.4892296,-0.3391444,0.2295731,-0.5898204,-0.08271994,0.138819,0.3920677,-0.3162544,0.4339911,0.3502376,-0.3384574,-0.2743706,-0.01189504,0.3427524,-0.7963328,0.4749552,-0.3845025,0.2854438,0.3291284,-0.490629,-0.4785402,0.1465223,0.4169692,-0.2004427,0.5226127,0.2054899,0.2475189,-0.3144128,-0.4239464,0.1198498,0.4505966,0.3178604,-0.08079827,0.3992313,0.008107416,-0.1371758,-0.3012136,-0.3342494,-0.02131603,0.3121299,0.3658318,0.3492505,0.4010166,-0.07307846,-0.2108159,0.5683393,-0.5591069,0.3871615,-0.7606089,-0.4708988,0.2561449,0.4212712,0.1419416,0.3496177,-0.3598431,-0.1963354,0.3194728,0.1543516,0.2800159,0.3162884,-0.2033436,0.111086,-0.5726125,-0.2734119,0.6730287,-0.1106406,0.002788424,-0.1871697,0.003119258,0.3668893,-0.115847,0.2780651,-0.4884597,0.1244472,-0.4756387,-0.2972406,-0.395142,-0.5317138,-0.2987986,-0.5104571,-0.8881683,0.5497795,-0.4448341,0.03730556,-0.1953597,-0.4968737,-0.5314856,-0.315656,-0.3762796,0.4174082,0.5751364,0.3626501,0.3636853,0.4698298,0.2718387,0.5263886,0.4156874,0.1827888,-0.4238149,0.3532787,-0.09738262,0.4004759,0.2010364,0.2288259,0.6193213,0.3761984,0.2413989,0.523348,-0.3346819,-0.3748727,0.3932188,-0.2659107,-0.4354831,0.3701319,-0.490981,0.1628753,-0.7018809,0.1747267,-0.2613132,-0.1910232,0.6987404,0.2604097,-0.2843374,-0.5714123,0.3977586,0.1807996,-0.3428003,0.1275073,0.1794583,-0.2376447,-0.2228407,0.4985571,0.3632902,-0.4393947,0.335585,0.2440499,0.4828529,-0.6117199,0.06124942,0.3948238,-0.4065726,-0.3550467,0.3396406,0.1956785,0.2404922,0.2004891,0.1891981,-0.3529247,0.366401,-0.9132595,-0.5694681,0.2741593,0.06887902,-0.4126802,0.2977764,0.3801699,0.6906971,0.005321622,-0.5344526,-0.3346219,0.3451774,-0.3207236,0.1973845,0.239752,-0.2751548,0.5157613,-0.211432,0.9819425,-0.04305476,0.424565,-0.418411,0.7605276,0.06199778,0.9609799,0.2453242,0.9259488,-0.7213429,-0.3465037,-0.4336573,-0.1318714,0.545638,-0.4919293,0.3475652,-0.02430736,-0.006622403,0.1613145,-0.07151597,0.4802703,-0.5433695,-0.6558834,-0.1241667,0.1722697,0.5776063,-0.114519,0.1467063,0.9351528,-0.5620032,-0.6515402,-0.518999,0.2847233,0.6164465,0.3248712,-0.1539469,-0.5451462,-0.1488767,-0.09012178,0.6112758,-0.1741645,0.1660328,0.8050275,-0.1476908,-0.1881151,0.4338852