-0.3504308,0.3623073,0.3117282,0.3177565,0.4321389,0.4060754,0.2856059,0.4905278,0.1999471,0.3062382,-0.009628319,0.4760295,-0.1578675,0.3921661,0.4499703,-0.3558345,0.7125452,0.3566986,-0.3406503,-0.2038615,0.07607602,-0.6095017,-0.3800406,0.01783341,0.4331277,-0.7277656,0.3478706,-0.2892841,-0.5034892,-0.4181021,0.2750307,-0.3215189,0.446375,0.4124523,-0.3522768,0.01426472,-0.3102323,-0.001541032,-0.3155687,0.4677915,0.2842945,0.1777401,0.2530031,0.3615741,0.3045523,-0.08977561,0.02077129,0.4550189,0.01909213,-0.001980386,-0.2459527,-0.4079008,0.3998805,0.2631137,0.2800724,-0.3568501,0.4895501,0.1142463,0.272456,0.4036606,-0.04479625,0.4317386,-0.3827204,-0.3767951,-0.3631848,-0.4739679,0.4550181,0.2903959,-0.342735,-0.4943177,0.2518761,-0.4839946,-0.3535627,0.1544542,0.608645,-0.2635373,-0.5039191,0.4435107,-0.2480282,0.2250216,0.3381316,-0.01063745,0.3553668,-0.552443,0.221437,-0.4196323,-0.4195732,0.08647541,0.4804568,-0.4899178,0.363393,-0.2195924,0.4062567,0.2881051,-0.351813,-0.9268177,0.4230324,-0.489152,0.2565305,-0.3270483,-0.1475381,-0.3346735,-0.2800313,0.2395311,-0.1641016,0.4084458,-0.09885265,0.1528763,-0.4382248,0.3496684,0.4379441,-0.389638,0.5410279,-0.4235239,-0.2444918,0.4364614,0.3760185,-0.5470867,0.4006814,0.4884516,0.3211743,-0.4356735,0.3483365,0.3081852,-0.5509493,-0.132763,-0.1303693,0.4394511,-0.3867375,-0.404891,0.2729419,0.06671765,-0.405037,0.3595105,-0.2657779,0.4261206,-0.1297067,-0.05600512,0.3201118,0.2250018,-0.5898204,-0.09399573,0.09897588,0.3920677,-0.3162544,0.4339911,0.3903009,-0.3384574,-0.261225,-0.01189504,0.3427524,0.3571721,0.6541619,-0.4072109,0.2854438,0.3291284,-0.490629,-0.5440378,0.1835682,0.4169692,-0.2004427,0.5844303,0.2084342,0.23527,-0.3144128,-0.4524933,0.1198498,0.4357066,0.3160978,-0.08079827,0.4220994,0.01406725,-0.1371758,-0.3012136,-0.3342494,-0.02131603,0.3305792,0.3975791,0.3492505,0.4603758,-0.07307846,-0.2602702,0.5683393,-0.5591069,0.3957283,-0.7606089,-0.4708988,0.2561449,0.4212712,0.1419416,0.3496177,-0.3537659,-0.2198113,0.07514383,-0.1859306,0.3152421,0.3162884,-0.2033436,0.111086,-0.5726125,-0.2734119,0.6730287,-0.1106406,0.002788424,-0.1871697,-0.03958672,0.382056,-0.115847,0.2780651,-0.5371811,0.1244472,-0.4756387,-0.2972406,-0.4348625,-0.5317138,-0.2987986,-0.5104571,0.4328253,0.5497795,-0.4448341,0.03730556,-0.1953597,-0.4968737,0.3616848,-0.3250726,0.8400335,0.4174082,0.5751364,0.3626501,0.3636853,0.4698298,0.3546573,0.6206933,0.4156874,0.1827888,-0.4238149,0.3532787,-0.07035996,0.4004759,0.2010364,0.2036471,0.6193213,0.4097917,0.2413989,-0.4530298,-0.3399992,-0.3722765,0.3911253,-0.2612558,-0.4666422,0.3701319,-0.490981,0.1628753,-0.8599424,0.2114487,-0.2564221,-0.1979553,0.8884041,-0.2549722,-0.289334,0.3084413,0.4504656,0.2030254,-0.4017252,0.1252133,0.1937808,-0.2376447,-0.2228407,0.5505959,0.3560246,-0.4393947,0.3632558,0.2440499,0.6751155,-0.6117199,0.06124942,0.4152171,-0.4660574,-0.3550467,0.3396406,0.1956785,0.2404922,0.2267842,0.154849,-0.3529247,0.366401,-0.9132595,-0.5694681,0.2856799,0.06887902,-0.4126802,0.377754,0.3801699,-0.3115548,0.005321622,-0.5344526,-0.3346219,0.3506983,-0.3495776,0.1973845,0.2376001,-0.2773185,0.5702703,-0.211432,0.9819425,-0.04305476,0.424565,-0.418411,0.7605276,0.06199778,0.9609799,0.2453242,0.9259488,-0.7213429,-0.3465037,-0.4336573,-0.1318714,0.545638,-0.4919293,0.3475652,-0.02430736,-0.006622403,0.1613145,-0.07151597,0.4802703,-0.5433695,-0.6558834,-0.1241667,0.1722697,0.5776063,-0.114519,0.1467063,0.9351528,-0.5620032,-0.6515402,-0.518999,0.2847233,0.6164465,0.2925447,-0.1539469,0.3242981,0.2811345,-0.09012178,0.6112758,-0.1777374,0.1829814,-0.2437388,-0.1801123,-0.2377129,0.53416